digraph Tree {
0 [label="X[0] <= 5.4500\ngini = 0.666666666667\nsamples = 150", shape="box"] ;
1 [label="X[2] <= 1.6500\ngini = 0.237426035503\nsamples = 52", shape="box"] ;
0 -> 1 ;
2 [label="gini = 0.0000\nsamples = 40\nvalue = [ 40.   0.   0.]", shape="box"] ;
1 -> 2 ;
3 [label="gini = 0.5694\nsamples = 12\nvalue = [ 5.  6.  1.]", shape="box"] ;
1 -> 3 ;
4 [label="X[3] <= 1.7500\ngini = 0.545814244065\nsamples = 98", shape="box"] ;
0 -> 4 ;
5 [label="X[2] <= 3.9500\ngini = 0.301035502959\nsamples = 52", shape="box"] ;
4 -> 5 ;
6 [label="gini = 0.4959\nsamples = 11\nvalue = [ 5.  6.  0.]", shape="box"] ;
5 -> 6 ;
7 [label="X[0] <= 5.9500\ngini = 0.176085663296\nsamples = 41", shape="box"] ;
5 -> 7 ;
8 [label="gini = 0.0000\nsamples = 13\nvalue = [  0.  13.   0.]", shape="box"] ;
7 -> 8 ;
9 [label="X[3] <= 1.4500\ngini = 0.244897959184\nsamples = 28", shape="box"] ;
7 -> 9 ;
10 [label="gini = 0.1327\nsamples = 14\nvalue = [  0.  13.   1.]", shape="box"] ;
9 -> 10 ;
11 [label="gini = 0.3367\nsamples = 14\nvalue = [  0.  11.   3.]", shape="box"] ;
9 -> 11 ;
12 [label="X[2] <= 5.1500\ngini = 0.0425330812854\nsamples = 46", shape="box"] ;
4 -> 12 ;
13 [label="gini = 0.1327\nsamples = 14\nvalue = [  0.   1.  13.]", shape="box"] ;
12 -> 13 ;
14 [label="gini = 0.0000\nsamples = 32\nvalue = [  0.   0.  32.]", shape="box"] ;
12 -> 14 ;
}